digraph Tree {
node [shape=box, style="filled", color="black"] ;
0 [label="X[0] <= 2843.5\nentropy = 1.79\nsamples = 468\nvalue = [187, 204, 34, 1, 7, 16, 19]", fillcolor="#fbfdf3"] ;
1 [label="X[0] <= 2524.5\nentropy = 1.929\nsamples = 116\nvalue = [7, 53, 34, 1, 5, 16, 0]", fillcolor="#eef9d1"] ;
0 -> 1 [labeldistance=2.5, labelangle=45, headlabel="True"] ;
2 [label="X[5] <= 374.0\nentropy = 1.336\nsamples = 37\nvalue = [0, 3, 24, 1, 0, 9, 0]", fillcolor="#95f1a0"] ;
1 -> 2 ;
3 [label="entropy = 1.379\nsamples = 7\nvalue = [0, 2, 4, 1, 0, 0, 0]", fillcolor="#b0f5b8"] ;
2 -> 3 ;
4 [label="X[4] <= 6.0\nentropy = 1.075\nsamples = 30\nvalue = [0, 1, 20, 0, 0, 9, 0]", fillcolor="#97f1a2"] ;
2 -> 4 ;
5 [label="entropy = 0.722\nsamples = 5\nvalue = [0, 1, 4, 0, 0, 0, 0]", fillcolor="#6aec79"] ;
4 -> 5 ;
6 [label="X[3] <= 101.5\nentropy = 0.943\nsamples = 25\nvalue = [0, 0, 16, 0, 0, 9, 0]", fillcolor="#a8f4b1"] ;
4 -> 6 ;
7 [label="entropy = 0.65\nsamples = 6\nvalue = [0, 0, 1, 0, 0, 5, 0]", fillcolor="#c161ea"] ;
6 -> 7 ;
8 [label="entropy = 0.742\nsamples = 19\nvalue = [0, 0, 15, 0, 0, 4, 0]", fillcolor="#6eec7c"] ;
6 -> 8 ;
9 [label="X[6] <= 226.5\nentropy = 1.667\nsamples = 79\nvalue = [7, 50, 10, 0, 5, 7, 0]", fillcolor="#d5f08c"] ;
1 -> 9 ;
10 [label="X[0] <= 2651.5\nentropy = 1.434\nsamples = 48\nvalue = [5, 32, 4, 0, 0, 7, 0]", fillcolor="#d3ef86"] ;
9 -> 10 ;
11 [label="X[0] <= 2617.5\nentropy = 1.526\nsamples = 13\nvalue = [0, 6, 4, 0, 0, 3, 0]", fillcolor="#eff9d3"] ;
10 -> 11 ;
12 [label="entropy = 0.918\nsamples = 9\nvalue = [0, 6, 0, 0, 0, 3, 0]", fillcolor="#dbf29c"] ;
11 -> 12 ;
13 [label="entropy = 0.0\nsamples = 4\nvalue = [0, 0, 4, 0, 0, 0, 0]", fillcolor="#39e54d"] ;
11 -> 13 ;
14 [label="X[3] <= 278.0\nentropy = 1.077\nsamples = 35\nvalue = [5, 26, 0, 0, 0, 4, 0]", fillcolor="#cded74"] ;
10 -> 14 ;
15 [label="entropy = 0.619\nsamples = 26\nvalue = [4, 22, 0, 0, 0, 0, 0]", fillcolor="#c4ea5d"] ;
14 -> 15 ;
16 [label="entropy = 1.392\nsamples = 9\nvalue = [1, 4, 0, 0, 0, 4, 0]", fillcolor="#ffffff"] ;
14 -> 16 ;
17 [label="X[1] <= 85.0\nentropy = 1.594\nsamples = 31\nvalue = [2, 18, 6, 0, 5, 0, 0]", fillcolor="#dcf3a0"] ;
9 -> 17 ;
18 [label="entropy = 0.0\nsamples = 10\nvalue = [0, 10, 0, 0, 0, 0, 0]", fillcolor="#b7e539"] ;
17 -> 18 ;
19 [label="X[4] <= 9.0\nentropy = 1.863\nsamples = 21\nvalue = [2, 8, 6, 0, 5, 0, 0]", fillcolor="#f5fce5"] ;
17 -> 19 ;
20 [label="entropy = 1.379\nsamples = 7\nvalue = [2, 4, 0, 0, 1, 0, 0]", fillcolor="#e2f5b0"] ;
19 -> 20 ;
21 [label="entropy = 1.557\nsamples = 14\nvalue = [0, 4, 6, 0, 4, 0, 0]", fillcolor="#d7fadb"] ;
19 -> 21 ;
22 [label="X[0] <= 3170.5\nentropy = 1.288\nsamples = 352\nvalue = [180, 151, 0, 0, 2, 0, 19]", fillcolor="#fbede2"] ;
0 -> 22 [labeldistance=2.5, labelangle=-45, headlabel="False"] ;
23 [label="X[0] <= 2987.0\nentropy = 1.041\nsamples = 220\nvalue = [89, 129, 0, 0, 2, 0, 0]", fillcolor="#e9f7c3"] ;
22 -> 23 ;
24 [label="X[6] <= 235.5\nentropy = 0.871\nsamples = 74\nvalue = [14, 58, 0, 0, 2, 0, 0]", fillcolor="#caec6e"] ;
23 -> 24 ;
25 [label="X[7] <= 184.5\nentropy = 1.0\nsamples = 58\nvalue = [14, 42, 0, 0, 2, 0, 0]", fillcolor="#d1ee81"] ;
24 -> 25 ;
26 [label="entropy = 0.0\nsamples = 3\nvalue = [3, 0, 0, 0, 0, 0, 0]", fillcolor="#e58139"] ;
25 -> 26 ;
27 [label="entropy = 0.935\nsamples = 55\nvalue = [11, 42, 0, 0, 2, 0, 0]", fillcolor="#cced74"] ;
25 -> 27 ;
28 [label="entropy = 0.0\nsamples = 16\nvalue = [0, 16, 0, 0, 0, 0, 0]", fillcolor="#b7e539"] ;
24 -> 28 ;
29 [label="X[3] <= 610.5\nentropy = 0.999\nsamples = 146\nvalue = [75, 71, 0, 0, 0, 0, 0]", fillcolor="#fef8f4"] ;
23 -> 29 ;
30 [label="X[7] <= 204.5\nentropy = 0.992\nsamples = 136\nvalue = [75, 61, 0, 0, 0, 0, 0]", fillcolor="#fae7da"] ;
29 -> 30 ;
31 [label="entropy = 0.567\nsamples = 15\nvalue = [13, 2, 0, 0, 0, 0, 0]", fillcolor="#e99457"] ;
30 -> 31 ;
32 [label="entropy = 1.0\nsamples = 121\nvalue = [62, 59, 0, 0, 0, 0, 0]", fillcolor="#fef9f5"] ;
30 -> 32 ;
33 [label="entropy = 0.0\nsamples = 10\nvalue = [0, 10, 0, 0, 0, 0, 0]", fillcolor="#b7e539"] ;
29 -> 33 ;
34 [label="X[0] <= 3317.5\nentropy = 1.203\nsamples = 132\nvalue = [91, 22, 0, 0, 0, 0, 19]", fillcolor="#efb083"] ;
22 -> 34 ;
35 [label="X[3] <= 399.5\nentropy = 1.035\nsamples = 99\nvalue = [73, 20, 0, 0, 0, 0, 6]", fillcolor="#eeaa7a"] ;
34 -> 35 ;
36 [label="X[4] <= 9.5\nentropy = 0.875\nsamples = 65\nvalue = [53, 6, 0, 0, 0, 0, 6]", fillcolor="#ea9b61"] ;
35 -> 36 ;
37 [label="entropy = 0.0\nsamples = 15\nvalue = [15, 0, 0, 0, 0, 0, 0]", fillcolor="#e58139"] ;
36 -> 37 ;
38 [label="entropy = 1.035\nsamples = 50\nvalue = [38, 6, 0, 0, 0, 0, 6]", fillcolor="#eca36f"] ;
36 -> 38 ;
39 [label="X[1] <= 107.5\nentropy = 0.977\nsamples = 34\nvalue = [20, 14, 0, 0, 0, 0, 0]", fillcolor="#f7d9c4"] ;
35 -> 39 ;
40 [label="entropy = 0.0\nsamples = 13\nvalue = [13, 0, 0, 0, 0, 0, 0]", fillcolor="#e58139"] ;
39 -> 40 ;
41 [label="entropy = 0.918\nsamples = 21\nvalue = [7, 14, 0, 0, 0, 0, 0]", fillcolor="#dbf29c"] ;
39 -> 41 ;
42 [label="X[12] <= 0.5\nentropy = 1.252\nsamples = 33\nvalue = [18, 2, 0, 0, 0, 0, 13]", fillcolor="#f8e0ce"] ;
34 -> 42 ;
43 [label="X[4] <= 11.0\nentropy = 1.087\nsamples = 19\nvalue = [14, 2, 0, 0, 0, 0, 3]", fillcolor="#eda877"] ;
42 -> 43 ;
44 [label="entropy = 0.971\nsamples = 5\nvalue = [2, 0, 0, 0, 0, 0, 3]", fillcolor="#f6bdd7"] ;
43 -> 44 ;
45 [label="entropy = 0.592\nsamples = 14\nvalue = [12, 2, 0, 0, 0, 0, 0]", fillcolor="#e9965a"] ;
43 -> 45 ;
46 [label="X[9] <= 533.5\nentropy = 0.863\nsamples = 14\nvalue = [4, 0, 0, 0, 0, 0, 10]", fillcolor="#ef88b6"] ;
42 -> 46 ;
47 [label="entropy = 0.0\nsamples = 2\nvalue = [2, 0, 0, 0, 0, 0, 0]", fillcolor="#e58139"] ;
46 -> 47 ;
48 [label="entropy = 0.65\nsamples = 12\nvalue = [2, 0, 0, 0, 0, 0, 10]", fillcolor="#ea619e"] ;
46 -> 48 ;
}